digraph Tree {
node [shape=box] ;
0 [label="sex=female <= 0.5\nentropy = 0.925\nsamples = 984\nvalue = [649, 335]"] ;
1 [label="age <= 8.5\nentropy = 0.668\nsamples = 641\nvalue = [529, 112]"] ;
0 -> 1 [labeldistance=2.5, labelangle=45, headlabel="True"] ;
2 [label="pclass=3rd <= 0.5\nentropy = 0.65\nsamples = 18\nvalue = [3, 15]"] ;
1 -> 2 ;
3 [label="entropy = 0.0\nsamples = 12\nvalue = [0, 12]"] ;
2 -> 3 ;
4 [label="age <= 3.5\nentropy = 1.0\nsamples = 6\nvalue = [3, 3]"] ;
2 -> 4 ;
5 [label="age <= 0.667\nentropy = 0.811\nsamples = 4\nvalue = [1, 3]"] ;
4 -> 5 ;
6 [label="entropy = 0.0\nsamples = 1\nvalue = [1, 0]"] ;
5 -> 6 ;
7 [label="entropy = 0.0\nsamples = 3\nvalue = [0, 3]"] ;
5 -> 7 ;
8 [label="entropy = 0.0\nsamples = 2\nvalue = [2, 0]"] ;
4 -> 8 ;
9 [label="pclass=1st <= 0.5\nentropy = 0.624\nsamples = 623\nvalue = [526, 97]"] ;
1 -> 9 ;
10 [label="age <= 46.5\nentropy = 0.486\nsamples = 484\nvalue = [433, 51]"] ;
9 -> 10 ;
11 [label="age <= 18.5\nentropy = 0.495\nsamples = 470\nvalue = [419, 51]"] ;
10 -> 11 ;
12 [label="age <= 11.0\nentropy = 0.267\nsamples = 22\nvalue = [21, 1]"] ;
11 -> 12 ;
13 [label="entropy = 0.918\nsamples = 3\nvalue = [2, 1]"] ;
12 -> 13 ;
14 [label="entropy = 0.0\nsamples = 19\nvalue = [19, 0]"] ;
12 -> 14 ;
15 [label="age <= 20.5\nentropy = 0.505\nsamples = 448\nvalue = [398, 50]"] ;
11 -> 15 ;
16 [label="age <= 19.5\nentropy = 0.742\nsamples = 19\nvalue = [15, 4]"] ;
15 -> 16 ;
17 [label="pclass=2nd <= 0.5\nentropy = 0.722\nsamples = 10\nvalue = [8, 2]"] ;
16 -> 17 ;
18 [label="entropy = 0.863\nsamples = 7\nvalue = [5, 2]"] ;
17 -> 18 ;
19 [label="entropy = 0.0\nsamples = 3\nvalue = [3, 0]"] ;
17 -> 19 ;
20 [label="pclass=2nd <= 0.5\nentropy = 0.764\nsamples = 9\nvalue = [7, 2]"] ;
16 -> 20 ;
21 [label="entropy = 0.592\nsamples = 7\nvalue = [6, 1]"] ;
20 -> 21 ;
22 [label="entropy = 1.0\nsamples = 2\nvalue = [1, 1]"] ;
20 -> 22 ;
23 [label="age <= 34.5\nentropy = 0.491\nsamples = 429\nvalue = [383, 46]"] ;
15 -> 23 ;
24 [label="age <= 31.597\nentropy = 0.502\nsamples = 398\nvalue = [354, 44]"] ;
23 -> 24 ;
25 [label="entropy = 0.485\nsamples = 380\nvalue = [340, 40]"] ;
24 -> 25 ;
26 [label="entropy = 0.764\nsamples = 18\nvalue = [14, 4]"] ;
24 -> 26 ;
27 [label="age <= 40.5\nentropy = 0.345\nsamples = 31\nvalue = [29, 2]"] ;
23 -> 27 ;
28 [label="entropy = 0.0\nsamples = 16\nvalue = [16, 0]"] ;
27 -> 28 ;
29 [label="entropy = 0.567\nsamples = 15\nvalue = [13, 2]"] ;
27 -> 29 ;
30 [label="entropy = 0.0\nsamples = 14\nvalue = [14, 0]"] ;
10 -> 30 ;
31 [label="age <= 60.5\nentropy = 0.916\nsamples = 139\nvalue = [93, 46]"] ;
9 -> 31 ;
32 [label="age <= 20.0\nentropy = 0.942\nsamples = 128\nvalue = [82, 46]"] ;
31 -> 32 ;
33 [label="entropy = 0.0\nsamples = 2\nvalue = [2, 0]"] ;
32 -> 33 ;
34 [label="age <= 38.5\nentropy = 0.947\nsamples = 126\nvalue = [80, 46]"] ;
32 -> 34 ;
35 [label="age <= 33.5\nentropy = 0.972\nsamples = 77\nvalue = [46, 31]"] ;
34 -> 35 ;
36 [label="age <= 32.5\nentropy = 0.95\nsamples = 65\nvalue = [41, 24]"] ;
35 -> 36 ;
37 [label="entropy = 0.959\nsamples = 63\nvalue = [39, 24]"] ;
36 -> 37 ;
38 [label="entropy = 0.0\nsamples = 2\nvalue = [2, 0]"] ;
36 -> 38 ;
39 [label="age <= 35.5\nentropy = 0.98\nsamples = 12\nvalue = [5, 7]"] ;
35 -> 39 ;
40 [label="entropy = 0.0\nsamples = 2\nvalue = [0, 2]"] ;
39 -> 40 ;
41 [label="entropy = 1.0\nsamples = 10\nvalue = [5, 5]"] ;
39 -> 41 ;
42 [label="age <= 47.5\nentropy = 0.889\nsamples = 49\nvalue = [34, 15]"] ;
34 -> 42 ;
43 [label="age <= 45.5\nentropy = 0.738\nsamples = 24\nvalue = [19, 5]"] ;
42 -> 43 ;
44 [label="entropy = 0.837\nsamples = 15\nvalue = [11, 4]"] ;
43 -> 44 ;
45 [label="entropy = 0.503\nsamples = 9\nvalue = [8, 1]"] ;
43 -> 45 ;
46 [label="age <= 49.5\nentropy = 0.971\nsamples = 25\nvalue = [15, 10]"] ;
42 -> 46 ;
47 [label="entropy = 0.954\nsamples = 8\nvalue = [3, 5]"] ;
46 -> 47 ;
48 [label="entropy = 0.874\nsamples = 17\nvalue = [12, 5]"] ;
46 -> 48 ;
49 [label="entropy = 0.0\nsamples = 11\nvalue = [11, 0]"] ;
31 -> 49 ;
50 [label="pclass=3rd <= 0.5\nentropy = 0.934\nsamples = 343\nvalue = [120, 223]"] ;
0 -> 50 [labeldistance=2.5, labelangle=-45, headlabel="False"] ;
51 [label="age <= 2.5\nentropy = 0.448\nsamples = 182\nvalue = [17, 165]"] ;
50 -> 51 ;
52 [label="pclass=2nd <= 0.5\nentropy = 1.0\nsamples = 2\nvalue = [1, 1]"] ;
51 -> 52 ;
53 [label="entropy = 0.0\nsamples = 1\nvalue = [1, 0]"] ;
52 -> 53 ;
54 [label="entropy = 0.0\nsamples = 1\nvalue = [0, 1]"] ;
52 -> 54 ;
55 [label="age <= 17.5\nentropy = 0.433\nsamples = 180\nvalue = [16, 164]"] ;
51 -> 55 ;
56 [label="entropy = 0.0\nsamples = 14\nvalue = [0, 14]"] ;
55 -> 56 ;
57 [label="age <= 31.597\nentropy = 0.457\nsamples = 166\nvalue = [16, 150]"] ;
55 -> 57 ;
58 [label="age <= 21.5\nentropy = 0.547\nsamples = 95\nvalue = [12, 83]"] ;
57 -> 58 ;
59 [label="age <= 18.5\nentropy = 0.31\nsamples = 18\nvalue = [1, 17]"] ;
58 -> 59 ;
60 [label="pclass=2nd <= 0.5\nentropy = 0.65\nsamples = 6\nvalue = [1, 5]"] ;
59 -> 60 ;
61 [label="entropy = 0.0\nsamples = 3\nvalue = [0, 3]"] ;
60 -> 61 ;
62 [label="entropy = 0.918\nsamples = 3\nvalue = [1, 2]"] ;
60 -> 62 ;
63 [label="entropy = 0.0\nsamples = 12\nvalue = [0, 12]"] ;
59 -> 63 ;
64 [label="age <= 30.5\nentropy = 0.592\nsamples = 77\nvalue = [11, 66]"] ;
58 -> 64 ;
65 [label="pclass=1st <= 0.5\nentropy = 0.736\nsamples = 29\nvalue = [6, 23]"] ;
64 -> 65 ;
66 [label="entropy = 0.831\nsamples = 19\nvalue = [5, 14]"] ;
65 -> 66 ;
67 [label="entropy = 0.469\nsamples = 10\nvalue = [1, 9]"] ;
65 -> 67 ;
68 [label="age <= 31.097\nentropy = 0.482\nsamples = 48\nvalue = [5, 43]"] ;
64 -> 68 ;
69 [label="entropy = 0.0\nsamples = 2\nvalue = [0, 2]"] ;
68 -> 69 ;
70 [label="entropy = 0.496\nsamples = 46\nvalue = [5, 41]"] ;
68 -> 70 ;
71 [label="age <= 56.5\nentropy = 0.313\nsamples = 71\nvalue = [4, 67]"] ;
57 -> 71 ;
72 [label="pclass=2nd <= 0.5\nentropy = 0.211\nsamples = 60\nvalue = [2, 58]"] ;
71 -> 72 ;
73 [label="age <= 50.5\nentropy = 0.31\nsamples = 36\nvalue = [2, 34]"] ;
72 -> 73 ;
74 [label="entropy = 0.381\nsamples = 27\nvalue = [2, 25]"] ;
73 -> 74 ;
75 [label="entropy = 0.0\nsamples = 9\nvalue = [0, 9]"] ;
73 -> 75 ;
76 [label="entropy = 0.0\nsamples = 24\nvalue = [0, 24]"] ;
72 -> 76 ;
77 [label="pclass=1st <= 0.5\nentropy = 0.684\nsamples = 11\nvalue = [2, 9]"] ;
71 -> 77 ;
78 [label="entropy = 0.0\nsamples = 1\nvalue = [1, 0]"] ;
77 -> 78 ;
79 [label="age <= 62.5\nentropy = 0.469\nsamples = 10\nvalue = [1, 9]"] ;
77 -> 79 ;
80 [label="entropy = 0.0\nsamples = 7\nvalue = [0, 7]"] ;
79 -> 80 ;
81 [label="entropy = 0.918\nsamples = 3\nvalue = [1, 2]"] ;
79 -> 81 ;
82 [label="age <= 19.5\nentropy = 0.943\nsamples = 161\nvalue = [103, 58]"] ;
50 -> 82 ;
83 [label="age <= 13.0\nentropy = 0.985\nsamples = 21\nvalue = [9, 12]"] ;
82 -> 83 ;
84 [label="age <= 5.5\nentropy = 0.971\nsamples = 10\nvalue = [6, 4]"] ;
83 -> 84 ;
85 [label="age <= 2.5\nentropy = 0.722\nsamples = 5\nvalue = [1, 4]"] ;
84 -> 85 ;
86 [label="age <= 1.083\nentropy = 1.0\nsamples = 2\nvalue = [1, 1]"] ;
85 -> 86 ;
87 [label="entropy = 0.0\nsamples = 1\nvalue = [0, 1]"] ;
86 -> 87 ;
88 [label="entropy = 0.0\nsamples = 1\nvalue = [1, 0]"] ;
86 -> 88 ;
89 [label="entropy = 0.0\nsamples = 3\nvalue = [0, 3]"] ;
85 -> 89 ;
90 [label="entropy = 0.0\nsamples = 5\nvalue = [5, 0]"] ;
84 -> 90 ;
91 [label="age <= 16.5\nentropy = 0.845\nsamples = 11\nvalue = [3, 8]"] ;
83 -> 91 ;
92 [label="entropy = 0.0\nsamples = 3\nvalue = [0, 3]"] ;
91 -> 92 ;
93 [label="age <= 18.5\nentropy = 0.954\nsamples = 8\nvalue = [3, 5]"] ;
91 -> 93 ;
94 [label="age <= 17.5\nentropy = 0.985\nsamples = 7\nvalue = [3, 4]"] ;
93 -> 94 ;
95 [label="entropy = 1.0\nsamples = 2\nvalue = [1, 1]"] ;
94 -> 95 ;
96 [label="entropy = 0.971\nsamples = 5\nvalue = [2, 3]"] ;
94 -> 96 ;
97 [label="entropy = 0.0\nsamples = 1\nvalue = [0, 1]"] ;
93 -> 97 ;
98 [label="age <= 21.5\nentropy = 0.913\nsamples = 140\nvalue = [94, 46]"] ;
82 -> 98 ;
99 [label="entropy = 0.0\nsamples = 4\nvalue = [4, 0]"] ;
98 -> 99 ;
100 [label="age <= 32.5\nentropy = 0.923\nsamples = 136\nvalue = [90, 46]"] ;
98 -> 100 ;
101 [label="age <= 23.0\nentropy = 0.901\nsamples = 123\nvalue = [84, 39]"] ;
100 -> 101 ;
102 [label="entropy = 0.918\nsamples = 3\nvalue = [1, 2]"] ;
101 -> 102 ;
103 [label="age <= 29.0\nentropy = 0.891\nsamples = 120\nvalue = [83, 37]"] ;
101 -> 103 ;
104 [label="entropy = 0.0\nsamples = 3\nvalue = [3, 0]"] ;
103 -> 104 ;
105 [label="age <= 31.597\nentropy = 0.9\nsamples = 117\nvalue = [80, 37]"] ;
103 -> 105 ;
106 [label="entropy = 0.903\nsamples = 116\nvalue = [79, 37]"] ;
105 -> 106 ;
107 [label="entropy = 0.0\nsamples = 1\nvalue = [1, 0]"] ;
105 -> 107 ;
108 [label="age <= 36.5\nentropy = 0.996\nsamples = 13\nvalue = [6, 7]"] ;
100 -> 108 ;
109 [label="entropy = 0.0\nsamples = 5\nvalue = [0, 5]"] ;
108 -> 109 ;
110 [label="age <= 38.5\nentropy = 0.811\nsamples = 8\nvalue = [6, 2]"] ;
108 -> 110 ;
111 [label="age <= 37.5\nentropy = 1.0\nsamples = 2\nvalue = [1, 1]"] ;
110 -> 111 ;
112 [label="entropy = 0.0\nsamples = 1\nvalue = [1, 0]"] ;
111 -> 112 ;
113 [label="entropy = 0.0\nsamples = 1\nvalue = [0, 1]"] ;
111 -> 113 ;
114 [label="age <= 44.0\nentropy = 0.65\nsamples = 6\nvalue = [5, 1]"] ;
110 -> 114 ;
115 [label="entropy = 0.0\nsamples = 3\nvalue = [3, 0]"] ;
114 -> 115 ;
116 [label="entropy = 0.918\nsamples = 3\nvalue = [2, 1]"] ;
114 -> 116 ;
}
